mlp_model.h
// Auto-generated MLP weights + pointers for C inference

#pragma once

// align data on 16-byte boundary for NEON
#define ALIGN16 __attribute__((aligned(16)))

#define NUM_LAYERS 3

static const int LAYER_SIZES[NUM_LAYERS+1] = {4, 128, 4, 1};

// Shape: (4, 128)
static const float W0[512] ALIGN16 = {
    -0.104752, 0.249444, 0.088901, 0.000000, -0.022457, -0.116500, -0.246983, 0.000000, 0.002470, 0.232879, -0.228741, 0.371881, 0.076815, -0.000000, -0.371231, -0.199804, -0.216630, -0.017500, -0.061532, -0.097174, 0.037924, -0.162668, -0.177636, -0.061489, -0.042685, -0.000000, -0.253378, -0.000000, -0.017100, -0.201147, 0.000000, 0.000324, -0.000000, 0.232324, 0.000524, -0.000000, -0.086288, -0.266570, 0.000000, -0.000000, -0.159867, -0.000271, 0.086747, 0.000000, -0.000000, -0.000000, -0.403184, 0.000787, 0.029800, -0.122252, 0.114203, -0.000000, 0.109942, -0.000279, 0.059131, -0.019964, 0.013463, -0.220646, -0.430129, -0.234668, -0.409540, -0.001628, -0.001615, 0.045565, -0.276649, -0.181771, -0.028462, 0.000000, 0.033282, 0.250502, 0.241190, -0.250063, -0.262182, 0.000000, 0.000000, 0.320256, -0.000000, -0.000000, 0.000000, -0.144458, 0.158580, 0.067813, -0.081380, -0.466213, -0.081810, -0.000000, 0.080664, -0.000000, 0.000000, 0.239890, -0.042334, 0.074445, 0.046030, 0.050847, -0.000000, 0.122220, 0.000152, -0.000000, -0.348221, -0.607452, -0.330805, -0.277098, 0.241392, 0.180745, -0.167655, 0.192948, -0.000083, 0.036061, -0.051100, -0.000000, -0.109269, -0.054704, 0.478819, -0.127329, 0.171515, -0.000000, 0.000000, -0.049809, -0.000000, -0.015381, 0.227952, -0.068019, 0.002468, -0.000000, -0.155836, -0.048081, 0.031622, 0.190392, -0.181085, 0.011480, -0.044753, 0.000000, -0.155919, -0.061476, 0.199938, -0.000000, 0.000373, 0.090826, -0.066170, 0.183395, 0.190030, -0.000000, -0.001113, -0.075725, -0.098612, -0.208981, 0.038801, -0.006886, -0.200765, -0.103888, 0.167938, -0.112037, -0.147787, 0.000000, 0.219545, -0.000000, 0.066122, 0.089939, 0.000000, 0.101827, -0.001013, 0.064040, 0.048889, -0.008099, -0.172570, 0.136972, -0.018561, -0.025828, -0.205752, 0.030900, 0.069880, -0.000000, -0.000000, 0.000000, 0.089398, -0.144972, 0.089955, -0.057819, 0.180018, -0.000000, -0.075568, -0.003891, 0.189438, 0.157512, -0.012177, 0.060982, 0.135240, 0.019482, 0.038963, -0.012839, -0.010463, 0.174529, 0.185741, 0.055044, -0.051973, -0.000000, 0.092981, 0.176830, 0.151932, 0.114162, 0.054132, -0.000000, -0.000000, 0.152078, 0.000000, -0.000000, -0.000000, 0.092691, -0.205400, -0.126790, 0.011524, 0.123165, 0.055920, 0.000000, 0.069993, 0.000000, -0.000000, 0.102387, 0.068916, 0.134054, 0.056059, 0.019423, -0.000000, -0.067170, -0.109566, -0.000519, 0.184006, -0.060689, 0.195148, 0.070784, 0.099211, 0.003251, 0.044825, -0.014599, -0.017032, 0.105643, -0.085614, -0.000000, 0.053632, -0.124522, 0.185324, 0.221694, 0.192360, -0.020840, -0.000000, 0.188782, -0.018513, 0.208749, 0.185480, 0.183051, -0.080176, 0.000000, 0.143005, -0.090058, -0.134472, 0.014008, 0.216133, 0.089002, 0.020313, -0.000000, 0.055174, 0.216321, -0.135566, 0.000000, 0.153991, 0.101879, 0.079024, 0.060405, -0.065153, -0.000000, 0.142659, 0.145186, 0.154857, 0.170336, -0.002553, -0.006996, 0.117642, 0.054407, 0.082630, 0.123603, 0.176940, 0.000000, -0.034088, -0.000000, 0.027515, -0.218825, 0.000000, 0.017895, -0.000748, 0.045563, -0.205776, -0.012933, 0.141653, -0.062500, -0.017855, -0.027663, 0.105212, -0.127336, 0.029360, -0.000000, -0.000000, -0.000000, 0.085317, 0.052467, 0.105296, 0.192285, 0.003255, -0.000000, 0.120887, -0.006950, -0.017581, -0.192605, -0.016141, 0.193020, 0.154215, 0.085383, 0.051344, -0.014270, -0.013831, -0.104475, 0.045162, 0.097840, 0.075874, 0.000000, 0.181736, 0.108085, 0.004424, 0.046583, -0.038970, -0.000000, -0.000000, 0.079735, -0.000000, -0.000000, -0.000000, -0.171990, 0.157644, 0.103035, -0.019731, -0.150411, -0.012901, -0.000000, -0.159174, 0.000000, -0.000000, 0.034334, 0.058833, -0.205162, -0.067311, 0.042393, 0.000000, 0.134125, 0.058196, -0.000359, -0.204640, 0.092161, -0.133423, 0.090255, 0.110031, 0.027665, 0.010885, 0.022440, -0.020325, 0.033822, 0.193740, 0.000000, 0.188307, 0.178869, -0.150910, -0.114707, -0.156941, -0.021598, -0.000000, 0.081852, -0.022038, -0.065419, 0.130466, -0.120141, 0.138373, 0.000000, -0.171856, 0.073175, 0.061345, 0.148724, 0.046246, 0.185303, -0.101297, -0.000000, 0.000581, 0.159794, 0.147743, 0.000000, -0.094244, 0.260876, -0.092161, 0.344225, 0.086917, 0.000000, -0.130730, 0.041836, -0.298614, 0.139807, -0.030277, 0.130281, -0.085628, 0.157027, -0.135921, -0.211949, 0.144181, -0.000000, -0.199881, 0.000000, 0.134931, 0.017156, -0.000000, 0.117887, -0.000000, -0.031720, 0.000000, -0.000000, 0.118614, 0.027148, -0.000000, -0.000000, -0.161759, 0.000001, 0.258374, 0.000000, -0.000000, -0.000000, -0.461012, 0.004280, 0.059866, -0.156946, -0.261248, 0.000000, -0.258328, -0.000001, 0.105037, -0.345366, 0.000832, 0.111592, -0.289119, -0.214611, -0.232522, -0.000048, -0.000030, 0.212238, -0.235240, -0.372951, 0.239880, 0.000000, 0.173487, 0.215687, -0.038760, -0.124874, -0.259025, 0.000000, -0.000000, 0.067259, -0.000000, 0.000000, 0.000000, 0.047496, 0.195750, -0.033643, -0.100006, -0.129245, -0.117397, 0.000000, -0.197519, 0.000000, -0.000000, 0.414489, 0.130775, 0.176927, -0.244741, 0.047601, 0.000000, 0.134357, 0.044685, 0.000000, -0.165317, -0.386899, -0.100056, -0.167964, 0.129917, 0.084255, -0.160002, 0.456242, -0.000000, -0.021709, -0.030248, -0.000000, -0.035125, 0.026903, 0.330519, -0.427050, 0.315162, -0.000000, -0.000000, 0.098618, -0.000000, 0.100896, 0.175140, -0.372629, 0.252958, 0.000000, 0.149030, 0.074890, 0.000946, 0.002275
};

// Shape: (128,)
static const float B0[128] ALIGN16 = {
    0.188321, 0.172398, -0.203470, -0.201958, -0.046526, 0.144285, 0.203765, -0.149063, 0.026624, -0.020303, 0.186298, 0.165471, 0.126720, -0.013349, -0.084293, -0.100111, -0.218160, 0.148031, 0.121028, 0.205042, 0.202231, 0.014113, 0.093493, 0.186544, 0.143028, -0.107731, -0.034863, -0.158127, 0.177490, 0.023600, -0.115707, 0.102998, 0.049283, -0.046802, -0.172168, 0.066888, 0.012213, 0.093743, 0.001234, 0.124034, 0.012181, 0.018593, 0.219589, -0.041155, -0.156056, -0.200928, 0.051577, 0.045154, 0.095918, -0.128125, -0.175639, -0.206999, -0.083568, 0.034553, -0.035915, -0.044018, 0.159911, -0.087062, -0.042524, 0.087505, -0.109898, 0.035404, 0.145322, 0.215199, -0.174216, 0.141545, 0.029884, -0.103085, 0.023552, 0.218635, 0.009371, -0.099724, 0.042087, -0.110802, -0.180852, -0.126224, -0.158602, -0.148429, -0.154005, 0.083333, -0.129753, -0.048095, 0.160106, -0.012732, 0.063691, -0.139723, -0.151248, -0.195774, -0.141167, -0.043509, -0.111555, -0.191116, -0.178818, -0.020362, -0.125220, -0.044311, -0.007999, 0.080354, -0.233694, 0.023464, 0.039809, -0.248379, 0.215263, 0.215366, -0.247311, -0.032015, 0.107039, 0.101740, -0.116569, -0.123934, -0.065697, 0.020306, 0.111002, -0.098647, 0.017036, 0.081764, -0.197559, -0.085368, 0.071906, 0.170852, 0.012695, -0.019792, -0.147216, -0.022423, 0.004114, -0.121016, -0.091909, -0.054164
};

// Shape: (128, 4)
static const float W1[512] ALIGN16 = {
    -0.214322, -0.063328, -0.152843, -0.083219, -0.171241, 0.123601, 0.040742, 0.067442, 0.114113, -0.000000, -0.166938, 0.006633, -0.000000, 0.000000, 0.000000, -0.000000, -0.097651, 0.000000, 0.069197, 0.024076, -0.070584, 0.161553, 0.044653, -0.121127, -0.177271, -0.129493, -0.083480, -0.151634, -0.000000, -0.000000, -0.000000, 0.000000, -0.188077, -0.005378, -0.036213, 0.196753, -0.174417, -0.041555, 0.202728, 0.147060, 0.125811, -0.089597, -0.149288, 0.062539, 0.174188, 0.003825, 0.034855, -0.102514, 0.106337, -0.117129, -0.066888, -0.040109, 0.000000, -0.000000, -0.000000, -0.000000, -0.099228, 0.011328, -0.145546, -0.016993, 0.004486, -0.169727, -0.074232, -0.165216, -0.195514, 0.163054, -0.077897, 0.122847, -0.114302, 0.048207, 0.116501, 0.031117, -0.020911, -0.037043, -0.057738, 0.174551, 0.134740, 0.000000, -0.153963, 0.092209, 0.177368, -0.000000, -0.175187, 0.093274, 0.022514, 0.000000, -0.144315, 0.116659, -0.136135, -0.126155, -0.139027, 0.125425, 0.060895, -0.002272, -0.064952, 0.151307, -0.055506, 0.095487, -0.049122, -0.062090, -0.000000, 0.000000, 0.000000, 0.000000, -0.122839, 0.127157, -0.043339, 0.010194, 0.000000, 0.000000, -0.000000, 0.000000, 0.045563, -0.062823, -0.149051, 0.116671, 0.057031, -0.000000, 0.145340, 0.123416, -0.000000, 0.000000, -0.000000, 0.000000, -0.207770, 0.007796, 0.115655, 0.152018, 0.000000, 0.000000, -0.000000, 0.000000, -0.167795, -0.041739, 0.129386, -0.158016, 0.000000, -0.000000, 0.085306, -0.000000, -0.000000, 0.000000, -0.009214, -0.000000, -0.145504, 0.133468, 0.042536, -0.052007, -0.024602, 0.146031, -0.137310, 0.028650, 0.000000, -0.000000, 0.000000, 0.000000, 0.000000, 0.000000, -0.026981, 0.000000, 0.079050, -0.000000, 0.041965, 0.036187, -0.000000, 0.000000, 0.175955, 0.000000, -0.029914, -0.145691, 0.209882, 0.135765, -0.000000, 0.000000, 0.000000, 0.000000, -0.000000, -0.000000, -0.000000, 0.000000, 0.000000, -0.000000, 0.000000, -0.000000, 0.007050, 0.135095, -0.064182, -0.073919, 0.095231, 0.000000, -0.111291, -0.026278, -0.162129, -0.121266, 0.001840, -0.043362, 0.167719, -0.053300, 0.035248, 0.047359, -0.216414, 0.038720, -0.131760, 0.188024, -0.000000, -0.000000, -0.000000, 0.000000, -0.008365, 0.015975, -0.185853, 0.097346, -0.000000, 0.000000, -0.005291, -0.000000, -0.206351, -0.019100, 0.033036, -0.193658, 0.115541, 0.000000, -0.060295, -0.026435, -0.000000, 0.000000, -0.013441, -0.000000, 0.145231, 0.145469, -0.051475, -0.106620, 0.052434, -0.038056, -0.199053, -0.155399, 0.083054, 0.037110, -0.198779, -0.127429, 0.000000, 0.041636, -0.250380, -0.000000, 0.000000, -0.000000, -0.013849, 0.000000, -0.000000, -0.000000, -0.011927, 0.000000, 0.132960, -0.041508, 0.085349, -0.133164, -0.097047, 0.125870, -0.203472, -0.185353, -0.133552, -0.179882, -0.132614, 0.026589, -0.043216, 0.124763, 0.114638, -0.077129, -0.000000, -0.000000, -0.000000, 0.000000, 0.043913, -0.037837, 0.024504, -0.036074, -0.096575, 0.146389, 0.115748, -0.162184, 0.148285, -0.014982, 0.173416, 0.119240, -0.040778, -0.181500, -0.094165, 0.009063, 0.048976, -0.088818, -0.134567, 0.135171, 0.000000, 0.000000, -0.000000, 0.000000, -0.000000, 0.000000, -0.000000, 0.000000, -0.105272, 0.003056, 0.068427, 0.131867, -0.000000, -0.000000, -0.000000, 0.000000, 0.000000, 0.000000, 0.000000, -0.000000, -0.000000, 0.000000, -0.000000, 0.000000, 0.013897, -0.000000, -0.165870, 0.076127, -0.187700, 0.000000, -0.095003, -0.057011, -0.100164, -0.000000, 0.120022, -0.096572, 0.020406, -0.000000, 0.074518, 0.178491, 0.104743, 0.000000, -0.294170, -0.089328, 0.031807, -0.169939, 0.005561, 0.032768, 0.000000, -0.000000, -0.000000, -0.000000, 0.103009, -0.000000, 0.057829, -0.021300, -0.000000, 0.000000, 0.000000, -0.000000, 0.000000, -0.000000, 0.000000, -0.000000, 0.169022, -0.136517, 0.195402, -0.031729, -0.143233, -0.000526, 0.161519, 0.090254, 0.137608, -0.000000, 0.056268, 0.161315, -0.114316, -0.010792, -0.124953, 0.200695, 0.180352, -0.174738, 0.091209, 0.172494, -0.000000, -0.000000, 0.000000, -0.000000, 0.074960, -0.076061, 0.181124, 0.191750, 0.180163, -0.000000, 0.163692, 0.137644, -0.000000, 0.000000, -0.000000, -0.000000, -0.122401, -0.139088, -0.181176, 0.076859, -0.077678, 0.063661, -0.190912, -0.088150, 0.022043, 0.087030, -0.026930, 0.064035, 0.155663, 0.022479, -0.111153, -0.211529, 0.148813, -0.181981, 0.163265, 0.003528, 0.178088, 0.088225, 0.212040, -0.072583, 0.119468, -0.040205, -0.026680, 0.065159, 0.150196, 0.160588, 0.115940, -0.044025, -0.000000, 0.000000, -0.017932, -0.000000, -0.070862, -0.079818, -0.083122, -0.122231, -0.204556, -0.183249, 0.205779, -0.039988, 0.000000, 0.000000, 0.000000, 0.000000, 0.113058, -0.155021, -0.032666, 0.152786, 0.180088, -0.020139, 0.039693, -0.151492, 0.201748, -0.096416, 0.212007, 0.056535, 0.038884, -0.008187, -0.087324, -0.144383, -0.126163, -0.113651, 0.158712, -0.070266, -0.000000, 0.000000, -0.021210, 0.000000, 0.000000, -0.000000, -0.000000, 0.000000, 0.074673, -0.129915, 0.138246, -0.126196, 0.000000, 0.000000, -0.014834, 0.000000, -0.182697, 0.118544, -0.092299, -0.166169, 0.156821, 0.149241, 0.158079, 0.123230, 0.072941, 0.005026, -0.115028, -0.026255, -0.063706, -0.089733, 0.090346, -0.011104, -0.000000, 0.000000, 0.000000, -0.000000, 0.145811, -0.000000, -0.077559, 0.035963, 0.128906, -0.054113, 0.086795, 0.018497, -0.105295, 0.000000, 0.133135, 0.061537, 0.140421, 0.114556, 0.091080, 0.134796
};

// Shape: (4,)
static const float B1[4] ALIGN16 = {
    0.075327, 0.065041, 0.076474, 0.099055
};

// Shape: (4, 1)
static const float W2[4] ALIGN16 = {
    -0.739240, 0.762263, 0.813307, -1.022382
};

// Shape: (1,)
static const float B2[1] ALIGN16 = {
    -0.181024
};

// Pointers to each layer’s weights and biases
static const float *WEIGHTS[NUM_LAYERS] = { W0, W1, W2 };
static const float *BIASES[NUM_LAYERS]  = { B0, B1, B2 };

#undef ALIGN16
